 0.4108 -0.3837 -0.4354  0.7607 -0.6788 
-0.3534 -0.9081  0.2468  0.2788  0.4402 
-0.7122  0.7029  0.1899 -0.7683 -0.9403 
 0.3259 -0.6572 -0.0987  0.5444 -0.1534 
 0.0828  0.0367 -0.6687  0.3891  0.0342 
 0.2016  0.1885 -0.3752 -0.0656 -0.1218 
-0.4566  0.0229  0.5193  0.2638 -0.4239 
 0.4442  0.5579 -0.5965 -0.6952 -0.7901 
 0.0492  0.4295 -0.5380  0.1137  0.1552 
-0.3011  0.1058  0.4694  0.1373 -0.1967 
-0.1883  0.1476  0.2964  0.0304 -0.1986 
 0.5544 -0.8346  0.6150 -0.2258  0.3866 
-0.7172 -0.0506 -0.8174  0.3843  0.4860 
 0.0528  0.5638 -0.7509 -0.0804 -0.2591 
-0.0811 -0.2623 -0.1850 -0.0788 -0.0546 
 0.1511 -0.9274  0.4265  0.7704  0.1504 
-0.1301  0.1270 -0.8129  0.6260  0.0324 
-0.4290 -0.3804 -0.0654  0.7563  0.1791 
 0.0028  0.5449 -0.2245 -0.6082  0.0472 
 0.0519 -0.2661  0.1677  0.0662 -0.1339 
-0.4772  0.5976 -0.5101 -0.4530 -0.2697 
 0.0377 -0.2551 -0.0721 -0.2485  0.1611 
 0.1605  0.5988 -0.7256  0.0735  0.2354 
-0.1653 -0.4911 -0.2705  0.4109 -0.0246 
-0.4416  0.5583 -0.4199 -0.1407 -0.0854 
 0.0744 -0.2937 -0.2362  0.2681 -0.1541 
 0.5140 -0.8804 -0.3134  1.1300  0.1517 
 0.1546 -0.3999  0.2106  0.2725 -0.1482 
 0.3382 -0.1561  0.2396 -0.3637 -0.2209 
-0.6452  0.0747  0.4656 -0.3897  0.3865 
-0.1770  0.1529 -0.7623  0.5289 -0.0408 
 0.1807 -0.2313 -0.1763 -0.0723 -0.1333 
 0.2234  0.6077 -0.6583 -0.6062  0.4197 
-0.6200 -0.0500  0.2006  0.4541 -0.6513 
 0.7447 -0.5831  0.1710 -0.7187  0.3052 
-0.5319  0.3351 -0.7038  0.5492  0.0019 
-0.2783  0.2738 -0.4021 -0.2878 -0.2060 
-0.3713  0.2577  0.5568 -0.5042 -0.1771 
-1.0656  0.1801  0.0893  0.0076  0.0971 
-0.1078 -0.2860 -0.4504  0.7630 -0.0297 
-0.0536 -1.0691  0.8245  0.8389  0.1604 
-0.1123 -0.1687  0.1267 -0.0210  0.0114 
-0.2157  0.1147  0.0919  0.0473  0.1973 
 0.6896 -0.8513  0.5886  0.7809 -0.1643 
-0.3136  0.4222  0.4999 -0.6907 -0.0615 
 0.2164  0.4298  0.3483 -0.7114 -0.2472 
-0.0786 -0.1362 -0.1579 -0.0682  0.0627 
 0.4718  0.1858 -0.3602 -0.5297 -0.2004 
 0.1122  0.4623 -0.7668  0.4276 -0.0010 
 0.3465  0.1641  0.3788 -0.6662 -0.1419 
-0.0425  0.4973  0.2148 -0.7571  0.4056 
-0.5422  0.6799 -0.2499 -0.1748 -0.1284 
 0.1346 -0.5351 -0.0740  0.4819 -0.0991 
-0.0341 -0.5939  0.5485  0.3653  0.1977 
 0.3395  0.0971  0.3794 -0.6972 -0.4412 
-0.2819  0.4263  0.2895 -0.6270  0.1617 
 0.5444 -0.8380  0.8230 -0.0746  0.0501 
-0.3006  0.5417 -0.7107  0.0565 -0.1898 
-0.1391  0.1175 -0.2325  0.4674 -0.4582 
 0.1393  0.0114 -0.1261 -0.1837  0.1492 
-1.1113 -0.0803 -0.4769  0.7746  0.0476 
-0.5847 -0.4106 -0.0312  0.3600  0.2202 
-0.4741  0.7571 -0.2353 -0.5533  0.3080 
-0.6495  0.9439 -0.8887 -0.5005 -0.1280 
 0.3128  0.7086 -0.4614 -0.3953 -0.4962 
 0.3510  0.3291  0.1705 -0.4219  0.0176 
 0.3066 -0.6653  0.5552  0.0086  0.0152 
-0.2932 -0.3245 -0.4130  0.6934 -0.2926 
 0.6467 -0.9256 -0.7128  1.0515 -0.4098 
-0.3776  0.5277  0.0788 -0.4687 -0.2286 
 0.0863  0.2128 -0.0393  0.1641  0.0789 
 0.2241  0.2540 -0.5189  0.0483 -0.0587 
-0.7413  0.7395 -0.6147 -0.1577  0.2004 
 0.0162 -0.9417 -0.5609  1.1852 -0.3489 
 0.6396 -0.8327 -0.7280  0.8072  0.3238 
 0.6165 -1.1300 -0.2797  0.8971  0.5639 
 0.5703 -0.6827 -0.1786  0.4824  0.0814 
-0.1858  0.2933 -0.4296 -0.0539 -0.3237 
-0.8996 -0.9228  0.4799  0.9561  0.2680 
 0.3481  0.5249 -0.4625 -0.2106 -0.4404 
-0.2893 -1.1178  0.3857  1.0735  0.0534 
-0.2814 -0.3836  0.5948 -0.2568  0.0705 
 0.2435  0.3771  0.2264 -0.4879 -0.0137 
-0.2902  0.4778  0.2050 -0.4721  0.2681 
-0.8687 -0.8010  0.1932  1.0255 -0.8146 
 0.4024 -0.0152 -0.6678 -0.2900  0.4331 
-0.5680 -1.0114  0.7484  0.6942 -0.1437 
 0.3105 -0.7342  0.6107  0.5018 -0.1537 
-0.3581  0.2269 -0.2350  0.3865 -0.2908 
-0.1201 -0.0780 -0.1396  0.0771 -0.1944 
 0.6181 -0.2069  0.5629 -0.6197 -0.3099 
 0.3225  0.4859 -0.3733  0.0892 -0.2924 
-0.1185 -0.1271 -0.2779  0.1493  0.0331 
-0.7479  0.8024  0.3841 -0.8459  0.3898 
 0.4314 -0.5463 -0.0357  0.0625  0.2863 
-0.7483  0.4085 -0.6562  0.2395  0.2564 
 0.3312 -0.6457  0.5747  0.1436  0.1684 
-0.3477 -0.2091  0.4089 -0.3298 -0.0475 
 0.1998 -0.5816  0.4818  0.3078 -0.2334 
-1.0396  1.2292 -0.8593 -0.6245 -0.5847 
 0.6558  0.5239 -0.0736 -0.8263 -0.6261 
 0.3098 -0.8860  0.2786  0.7281 -0.0297 
-0.3901 -0.6273  0.3357  0.4393 -0.1792 
 0.3043  0.3164 -0.6171  0.3172  0.3332 
-0.4907  0.5417 -0.7364 -0.3046  0.0414 
 0.2240 -0.1522 -0.2192 -0.3470 -0.0357 
 0.2703  0.4126  0.4001 -0.5270 -0.1209 
-0.0305 -0.1345 -0.1693  0.1919 -0.1072 
-0.7445  0.5913  0.4413 -0.6157  0.1125 
 0.0534  0.4745  0.3086 -0.7361 -0.1995 
 0.0759  0.2328  0.1597 -0.6465 -0.6811 
 0.6947  0.2084 -0.5792 -0.7040  0.2281 
-0.9019 -0.2027  0.3686  0.2297  0.2493 
-0.2239  0.3842 -0.1119 -0.6095  0.0056 
 0.3605 -0.4933 -0.0785  0.1246 -0.0587 
-0.9927  0.5761 -0.5933  0.5976  0.1665 
-0.0398 -0.1628 -0.2960  0.3207 -0.3198 
 0.0038 -0.4136  0.0073  0.4194 -0.4045 
-0.4876 -0.5336 -0.1174  0.7945  0.1569 
-0.2401  0.7266 -0.2383 -0.4948  0.1982 
-0.3521  0.1763 -0.1901  0.3699  0.0970 
-0.8172 -0.4103  0.7000 -0.5248  0.4445 
 0.0598 -0.2001  0.2776 -0.3560 -0.1387 
