 0.4683  0.3871 -0.5968 -0.6243 -0.3196 
-1.0739  1.0535 -0.8986  0.4423 -0.1909 
 0.0777  0.3715 -0.3109 -0.3356  0.1238 
-0.2907 -0.7083  0.8436 -0.1652 -0.2890 
 0.4359  0.1160  0.6965 -0.9957  0.2501 
 0.3501 -0.3716 -0.5356  0.4246 -0.2107 
-0.2353  0.0109  0.2607  0.0471 -0.2018 
-0.6486 -0.0914 -0.3113  0.7482 -0.3396 
 0.1240 -0.9104  0.3853  0.9353  0.0026 
-0.5063 -0.6429  1.4653 -0.6381 -1.0448 
-0.4339 -0.4395 -0.1531  0.6125  0.2239 
-0.4127  0.4375  0.4329 -0.7470  0.1798 
-0.4623  0.5304 -0.4053  0.3371  0.0409 
-0.3570  0.2353 -0.4746  0.6802 -0.1524 
 0.2049  0.8167 -0.7844 -0.0614  0.0575 
 0.7276 -1.0652  0.2244  0.2485 -0.2808 
 0.2446 -0.8636 -0.0988  0.8667  0.3012 
-0.3043 -0.9002 -0.3622  0.8792  0.4590 
 0.1931  0.1877  0.1075 -0.1986  0.0915 
 0.3311  0.4248 -0.7444  0.5234 -0.1336 
 1.0808 -1.3241 -0.7616  0.9560 -0.5429 
-0.4990 -0.2122  0.4463  0.1402 -0.5642 
-0.0116  0.4811 -0.0061 -0.0106 -0.6610 
-1.0145 -0.0485 -0.1745  0.5209  0.3430 
-0.6791 -0.6494  0.4168  0.5390  0.3822 
 0.0340 -0.3942  1.0369 -0.4533 -0.2927 
-1.1289  1.0918  0.6794 -0.7432 -0.3881 
 0.5984 -0.1683 -0.5095 -0.0329  0.3640 
 0.5109 -0.3175  0.0042  0.3743 -0.6342 
-0.3889 -0.4393 -0.7174  0.8379 -0.8150 
-0.2268  0.1225  0.0734 -0.2342 -0.0988 
-0.0721  0.8822 -0.3235 -0.8922 -0.6312 
-0.1528  0.4438  0.2572 -0.7490 -0.2221 
-0.3492  0.1687 -0.2646  0.2301 -0.3072 
 0.4429 -0.9487  0.1615 -0.1468  0.5587 
 0.4253  0.1021  0.5856 -0.5520  0.5135 
 0.1685 -0.1011  0.4795 -0.8138  0.5254 
-0.3439  0.7350 -0.4224 -0.5634  0.0834 
 0.3755  0.7013  0.3063 -0.9522 -0.2171 
-0.4767 -1.2665  0.1489  0.4984  0.7994 
-0.5922  0.1043 -0.2242  0.4932  0.1114 
 0.2733  0.4450 -1.0395  0.8375  0.1975 
-0.0422  0.6568 -0.2877 -0.3992 -0.4330 
 0.3706 -0.7598  0.5566  0.2248 -0.0215 
-0.3791 -0.4618  0.3695 -0.0859 -0.0671 
 0.1880 -0.3651 -0.4838  0.5415 -0.2624 
-0.0632 -1.0054 -0.1876  1.0497  0.0783 
 0.3392 -0.6462  0.4432 -0.1340 -0.4146 
-0.3974 -0.6537  0.2942  0.6341  0.1811 
-0.2445 -0.2205  0.0353 -0.1956  0.0802 
 0.2483  0.0971  0.8958 -0.7330 -0.0713 
 0.1549  0.4786 -0.8853  0.4731 -0.1126 
 0.5340  0.0442  0.4036 -0.7435 -0.2529 
-0.8445 -0.4301  0.1813  0.1495  0.4591 
 0.1753 -0.1883 -0.4929  0.2966 -0.2934 
 0.5783  0.3009 -0.4776  0.1203 -0.4449 
 0.2872 -1.1736  0.7664  0.6998 -0.5874 
-0.8583 -0.4034  0.1286  0.3159  0.1282 
 0.5807 -0.2620  0.2084 -0.0601 -0.6694 
 0.4415  0.4259  0.0284 -0.5687  0.1172 
-0.0268 -0.8648  0.4086  0.5512 -0.1551 
 0.4118 -1.0332  0.7269  0.2496 -0.1155 
-0.3633 -0.1903 -0.2832  0.1851  0.1106 
 0.0387  0.5944  0.2995 -0.6725 -0.0980 
 0.2007  0.4902  0.1566 -0.5392 -0.1604 
-0.3354 -0.1005  0.5809 -0.3779  0.0916 
-1.1033  1.0433 -0.9824  0.5273 -0.9218 
 0.2401 -0.9025 -0.9933  0.9096  0.6406 
 0.1733  0.6961 -0.4424  0.1670 -0.4762 
-0.3310 -0.9426 -0.4979  1.0110  0.1988 
-0.1812  0.0285  0.6237 -0.9023  0.4595 
 0.9897  0.0735 -0.0701 -0.7433 -0.9144 
-0.5510  0.0600  0.4501 -0.1766 -0.3735 
 0.3675  0.5283 -0.7391  0.0157  0.2665 
 0.3359  0.3065 -0.1048 -0.6597  0.1257 
 0.1390 -0.6408  0.4752 -0.3536  0.2379 
-0.3968  0.4154 -0.2309 -0.5403  0.4902 
 0.3237 -0.5421  0.9506 -0.9902  0.2387 
-0.8013  0.8653 -0.9646  0.4986  0.2990 
-0.3263 -0.1998  0.0763  0.1667  0.2068 
 0.3143 -0.8831  1.0439 -1.0527 -0.2144 
-1.0813 -0.3211  0.3204  0.6218 -0.1806 
-0.3045 -0.0082  1.1260 -1.1566  0.0011 
-0.2571 -0.1628  0.2889 -0.3137 -0.2333 
-0.0099 -0.1033  0.1342  0.0091 -0.1166 
 0.3793  0.4263 -0.4797 -0.5491  0.6164 
-0.4702 -0.3132  0.1675  0.1326 -0.2582 
-1.0600 -0.1917 -0.2241  0.6622  0.4268 
-0.5779 -0.1696  0.6503 -0.6691 -0.1207 
-0.4589 -0.5340 -0.7395  1.2897 -0.7279 
-0.5090 -0.0709  0.5826 -0.4701  0.2746 
-0.0479 -0.7910  0.6863  0.5240 -0.1572 
-0.1019  0.0155  0.5608 -0.6639  0.4046 
-0.4351 -0.7373  0.3711 -0.1453  0.2767 
-0.1466 -0.1116 -0.6677  0.4950  0.0264 
-0.8269 -0.0734  0.5451  0.1969  0.4371 
 0.2701 -0.7328 -0.0930  0.5728  0.4936 
-0.4371  0.5029  0.4882 -0.7166  0.0644 
 0.4480 -1.1551  0.6308  0.4053 -0.3006 
 0.1386 -0.2478  0.2079 -0.5443 -0.2694 
-0.5340  0.3264  0.6052 -0.8355 -0.2674 
 0.6084  0.2924 -0.0819 -0.5306  0.1560 
-0.2546  0.4668 -0.1885 -0.5962 -0.2968 
 0.2865 -0.3294 -0.7199  0.4125  0.6618 
 0.7399  0.0677 -0.4060 -0.9224 -0.4879 
 0.8514 -0.5290 -0.6469  0.3426 -0.4809 
 0.4112 -0.2625 -0.4628  0.6640 -0.1896 
-0.2754  1.2677 -1.0372 -0.9074 -0.3514 
 0.3347 -0.1186 -0.3464  0.6869 -0.7349 
-0.0134  0.5439 -0.5243  0.4083 -0.3404 
-0.1792 -0.6634 -1.2377  1.2009 -0.2013 
 0.2479  0.6061 -0.6482 -0.1891 -0.4405 
 0.1781 -0.2261  0.6310 -0.4887  0.3471 
 0.2923  0.6777 -0.6030 -0.4346 -0.3087 
-0.3409 -0.5298 -0.1087  0.5405 -0.1183 
 0.5669 -0.2510  0.1733 -0.5160  0.1299 
 0.1612 -0.2254 -0.0041 -0.2761 -0.4070 
-0.9819 -0.3003 -0.9003  1.2405 -0.7350 
-0.2672  0.3392 -0.5906  0.0066  0.2705 
 0.6768 -0.0197 -1.2268  1.0429 -0.4344 
 0.2747 -0.4567  0.0578 -0.3956 -0.2124 
-0.5557  0.6387  0.1257 -0.6589  0.1493 
 0.1296  0.7486 -0.2325 -0.6017 -0.7083 
