 0.1020  0.6094  0.2428 -0.2412  0.2900 
-0.7111  0.8292 -0.0500 -0.1476 -0.4359 
 0.4566 -0.6154 -0.4367  0.5579  0.0548 
 0.5126  0.1146 -0.1443 -0.5907  0.1923 
-0.2836  0.6395  0.0650 -0.5849 -0.0827 
-0.2109 -0.7221  0.1685  0.7977 -0.3514 
 0.1081  0.4081  0.2134 -0.4765 -0.3602 
-0.4704  0.0562  0.0072  0.3735 -0.3171 
 0.1896 -0.1702 -0.0439 -0.0852  0.0338 
 0.4121 -0.3457 -0.5763  0.7860 -0.7785 
-0.6414  0.0502 -0.2933  0.3319 -0.2542 
-0.1438  0.5907 -0.7213 -0.5268  0.5303 
 0.6982 -0.5776  0.0174 -0.1672 -0.1107 
-0.9068  0.5719 -0.4265 -0.3156 -0.6962 
 0.5103 -1.2142 -0.1022  0.9012 -0.2633 
-0.3809  0.6659 -1.2263 -0.0789  0.8540 
-0.8540  1.1777 -0.3468 -0.5907  0.0380 
-0.6317 -0.4473 -0.2823  0.5937  0.4354 
-0.4250  0.0223 -0.5221 -0.3191  0.4260 
 0.0467 -0.6422  0.2878  0.7553  0.2367 
 0.2516 -0.5734  0.6659  0.4674 -0.7081 
 0.3488  0.1435 -0.0584 -0.4285 -0.2960 
-0.7993 -0.0258 -0.0549  0.5188 -0.2252 
 0.5478  0.3003  0.0065 -0.6105 -0.1560 
 0.8864  0.2320 -0.1084 -0.7015  0.4778 
 0.1391 -0.7767 -0.0362  0.5118  0.3196 
 0.4169 -0.6417 -0.3417  0.7041  0.2040 
 0.7704  0.6276 -0.0633 -1.0489 -0.7318 
-0.1365  0.9426 -0.3632 -0.4604  0.2681 
-0.3188 -0.1017 -0.5513  0.3603 -0.3242 
-0.2860  0.1376 -0.2664  0.4855 -0.7506 
 0.0837 -0.3274 -0.5412  0.5397  0.0225 
-0.9216  0.7688 -0.8182 -0.4451  0.3944 
-0.5876 -1.1003  0.3050  0.9110  0.6672 
-0.6729 -0.6186 -0.2228  0.9560 -0.9360 
-0.1324 -0.6524  0.6875  0.6394  0.3310 
-0.2449  0.4854  0.0262 -0.5159  0.0537 
-0.5379 -0.5451  0.5657  0.4161  0.0511 
-1.0736 -0.4046 -0.1464  0.3202  0.2098 
-0.0881 -0.0769  0.2549 -0.1685 -0.6970 
 0.2971 -0.1617  0.8062 -0.3525  0.1898 
-0.7902 -0.4210  0.4213 -0.3179  0.4669 
-0.2245 -0.2404  0.4989 -0.2273  0.1199 
 0.5557 -0.5963 -0.3634  0.5729 -0.5005 
-0.3637 -0.3780 -0.3823  0.4001 -0.3194 
 0.2729  0.2851  0.4434 -0.5935 -0.0261 
 0.2715  0.7937 -0.4872 -0.4755 -0.9353 
 0.2212  0.6458 -0.3487 -0.8957 -0.4554 
-0.0348  0.4275  0.0284 -0.6833  0.0871 
-0.0467  0.5493 -0.2513 -0.5677  0.0153 
 0.0251 -0.6616 -0.1367  0.6684 -0.2144 
 0.6294  0.5123 -0.7136 -0.5966 -0.7394 
-0.2649 -0.6930  0.5459  0.6470 -0.0092 
-0.0128 -0.5840  0.1839  0.4562  0.2548 
 0.1367  0.5708 -0.0602 -0.4863 -0.0256 
 0.7264  0.0705 -0.3731 -0.6481 -0.0471 
 0.1345  0.6831  0.6348 -1.0654  0.4731 
 0.0065 -0.7025  0.0873  0.5258 -0.2345 
 0.0590  0.4883 -0.3535  0.5765 -0.5383 
-0.2309  0.2994 -0.2152 -0.2981  0.1816 
-0.0671  0.9246  0.2596 -1.1966 -0.1972 
-0.7580 -0.3149 -0.0031  0.5225  0.1219 
 0.4552 -0.5306  0.3420  0.3110 -0.4651 
-0.7194  0.6274  0.1582 -0.2089  0.1795 
 0.1470  0.3979  0.2156 -0.1976 -0.0722 
-0.2198 -0.0284  0.0448  0.1683 -0.0022 
-0.2838 -0.9116  0.5496  0.3724  0.4111 
-1.0788 -0.4946 -0.1685  1.0134 -0.1151 
 0.2234 -0.0917  0.1986 -0.2259 -0.5971 
 0.1871 -1.0788 -0.1246  0.9393 -0.0740 
-0.3009 -0.2137 -0.2935 -0.0857 -0.1203 
-0.5917  0.9666  0.0019 -0.7278  0.2048 
-0.2359  0.2932  0.1994  0.1835 -0.5152 
 0.6394  0.7022 -0.9545 -0.8366  0.0089 
 0.4543 -0.6051  0.4537  0.1089 -0.5621 
 0.5165  0.4346  0.5151 -0.8659  0.1898 
-0.0941  0.2849 -0.2774 -0.5626  0.3818 
 0.5114 -0.2633 -0.5995  0.5964 -0.5919 
-0.2090 -0.2107 -0.0762  0.0087  0.0008 
 0.0685  0.6181  0.0903 -0.6441 -0.1807 
-0.7756 -0.5071 -0.0790  0.5445  0.4223 
-0.4936  0.0083 -0.4564  0.4177  0.0614 
 0.0549  0.2132 -0.0172 -0.5092 -0.6840 
 0.1150  0.6736  0.8807 -1.1111  0.3988 
 0.0720 -0.8145  0.2550  0.6663  0.2344 
 0.8509 -0.4047  0.7699 -0.9395 -0.0073 
 0.2505  0.4223 -0.6156 -0.8405  0.3027 
-1.0641  0.6186  0.0412 -0.7900 -0.5338 
 0.0430  0.3704  0.1051 -0.6732  0.2690 
-0.0913 -0.5953 -0.1802  0.4673  0.0685 
 0.4167  0.2559 -0.2255 -0.3532 -0.5545 
-0.9396 -0.5498 -0.5757  0.8243  0.3656 
 0.0530 -0.1848 -0.1831 -0.1866 -0.0749 
-0.5750 -0.0647 -0.9911  0.5462  0.0769 
-0.6893 -1.0470 -0.4964  0.8857  0.6005 
 0.1553  0.7104 -0.1175 -0.8364 -0.8592 
 0.5778 -0.6360  0.0624 -0.0349  0.5632 
-0.4867  0.3470  0.2182 -0.3850 -0.1890 
 0.7203 -0.2396 -0.7035 -0.3292 -0.0085 
 0.1605  0.4951 -0.0248 -0.5696 -0.2525 
-0.3927  0.5732  0.3070 -0.8229  0.4555 
 0.4495  0.0240 -0.3576 -0.3136 -0.5875 
-0.5304  0.4920  0.4505  0.0959 -0.7193 
-0.5477  1.0628 -0.8370 -0.6692 -0.8501 
-0.0639 -0.0974 -0.1022  0.0288 -0.1479 
 0.1029 -0.8009  0.4160  1.0009  0.0825 
 0.5920 -0.7948 -0.6120  0.6809 -0.0399 
 0.2538  0.0082 -0.4126 -0.3457 -0.3440 
-1.0585 -0.8587 -0.3431  0.9291  0.8866 
-0.2027 -0.8129  1.0690 -0.0022 -0.6359 
 0.0236  0.2076 -0.2445 -0.1755  0.1248 
 0.5346 -0.9969 -0.4556  0.8370  0.0529 
-1.0941 -0.3306  0.3035  0.4746  0.0156 
 0.0768  0.1692 -0.1582  0.4307 -0.1639 
-0.5779 -0.3284 -0.4104  0.5266  0.2657 
-0.3210 -0.5539  0.5158 -0.2172 -0.0496 
-0.1208 -0.2401 -0.3501  0.6789 -0.4854 
 0.5666  0.6072 -0.7730 -1.0209  0.7180 
-0.4505  0.8541 -0.1592 -0.4837 -0.9414 
 0.4506 -0.6172  0.3420  0.0521 -0.2765 
-0.1367  0.1439 -0.1764  0.0702  0.0642 
-0.8282  0.6330 -0.1887 -0.4962 -0.2793 
-0.5650 -0.1754  0.0242  0.2881 -0.0120 
