-0.4965 -0.0317  0.0893  0.0840  0.1943 
-0.6573 -0.0005  0.0606 -0.3276 -0.4670 
-0.1292  0.2729 -0.3329 -0.4178 -0.0361 
-0.0936  0.0160  0.1952  0.1529 -0.1696 
 0.1571  0.0912 -0.7166  0.4012 -0.4239 
 0.1861 -0.4118  1.1304 -1.1057 -0.2074 
 0.1412  0.0481  0.2629  0.1589 -0.1332 
-0.4940  0.1613 -0.2236  0.2173 -0.6909 
-0.0325  0.2657  0.2047 -0.6298  0.0628 
-0.1889  0.3091 -0.5855  0.0822  0.1297 
-0.4025  0.5202 -0.3464 -0.0018 -0.2144 
 0.1736 -0.9459 -0.0342  0.6774 -0.3153 
-0.2599 -0.0549 -1.0019  1.1465  0.0824 
-0.1410 -0.5991  0.4670 -0.3008  0.2587 
-0.0574  0.0956  0.1186  0.0189 -0.1735 
 0.1773 -0.3342  0.1663  0.4525 -0.1442 
 0.2606 -0.5226  0.7055  0.0274 -0.3266 
 0.4963 -0.6797  0.3239 -0.1099 -0.7475 
 0.6226  0.6553 -0.8744  0.2128 -0.7392 
-0.2841  0.6182 -0.5016 -0.2079  0.0929 
 0.2168 -0.1911  0.5561 -0.4573  0.2182 
-0.7779 -0.6833  0.4304  0.5055  0.3006 
-0.2082 -0.4189 -0.0444  0.3952 -0.4155 
-0.5574 -0.4625  0.3293  0.4387 -0.0387 
-0.2397  0.4313 -0.1983  0.0332  0.1330 
-0.2005  0.0379 -0.3667  0.3186 -0.1212 
-0.1965 -0.1183 -0.2606  0.1635 -0.0164 
-0.1061 -0.3970  0.8576 -0.2319 -0.2580 
-0.4941 -0.6153  0.6825  0.1094 -0.3369 
-0.0541 -0.3546 -0.1565 -0.1342 -0.0845 
 0.3099  0.3603 -0.6076 -0.3415  0.3434 
-0.0384 -0.3997  0.9415 -0.8252 -0.4681 
 0.6842 -0.6989  0.3076  0.0188  0.0957 
 0.0764 -0.4408 -0.5749  0.7485 -0.1691 
 0.1763  0.1463  0.1707 -0.1840  0.0128 
 0.2285  0.6294 -0.4780 -0.2328  0.0427 
 0.1183 -0.3893  0.6155 -0.5617 -0.0816 
-0.2067 -0.5067  0.0221  0.3157 -0.1749 
-0.1171  0.2472  0.6199 -0.6060 -0.3766 
 0.0194  0.1000  0.0055  0.1591 -0.5862 
 0.3159  0.2371 -0.7715  0.4299  0.2547 
-0.2680 -1.1940  0.2662  0.8443 -0.3495 
-0.2678 -0.2558  0.6588 -0.6542  0.1993 
-0.5647  0.6366 -0.8213  0.6742 -0.0650 
-0.2962  0.5174 -0.3955  0.1021 -0.2041 
-0.6970  0.5514 -0.4860  0.5142  0.4574 
-0.1529  0.5435 -0.7057  0.2596 -0.1842 
 0.2919  0.5304 -0.7129 -0.1782 -0.0837 
 0.0903  0.6651 -0.5650 -0.4793  0.1252 
-0.2716  0.0575  0.3338 -0.3508 -0.3338 
-0.1435 -0.1042  0.5863 -0.6038  0.0113 
 0.3778  0.2140 -0.3416  0.2425 -0.0744 
 0.2431 -0.1468  0.2984 -0.3256 -0.1531 
 0.1563 -0.6879  0.6186 -0.1071 -0.0204 
 0.1073 -0.1007 -0.2925  0.0434  0.1968 
-0.2686  0.0825  0.0851 -0.1146  0.1367 
 0.0668  0.4762 -0.7365  0.6834  0.0769 
-0.0944 -0.0141  0.0371 -0.3339 -0.2811 
-0.0309  0.5764 -0.2627 -0.6340  0.0104 
 0.1928 -0.3566 -0.4354  0.5707 -0.0608 
-0.5726 -0.1177 -0.0858  0.3262 -0.3928 
-0.1959  0.4828 -0.5473  0.4246 -0.2524 
-0.7298 -0.6716  1.0241 -0.9591 -0.7406 
-1.0756  0.8533 -0.5404 -0.2340  0.5272 
 0.4897  0.3251 -0.1302 -0.2166  0.0719 
-0.7886 -1.0285  0.9372 -0.5318  0.2311 
 0.0410  0.6910 -0.7787  0.2417  0.1050 
 0.3612 -0.2054 -0.9595  0.5952 -0.1833 
-0.3316  0.5853  0.0122 -0.5604  0.1247 
-0.0390 -0.3099  0.8416 -0.7314 -0.9023 
-0.1860 -0.4595  0.4282 -0.0227 -0.2085 
 0.4443  0.4432 -0.2998 -0.6278  0.4137 
 0.4228 -0.6247  0.9241 -0.5746 -0.1997 
-0.1522 -0.2436  0.8378 -0.5816  0.0765 
-0.4573  0.4318 -0.7652  0.7341  0.4006 
-0.1588 -0.2052  0.2610  0.0441 -0.2646 
 0.2619  0.2657 -0.6731  0.4600  0.1189 
 0.1833  0.1397  0.5285 -0.5639  0.1084 
-0.8681 -1.0464  0.6797  0.6948 -0.3883 
-0.0541  0.4983 -0.4490 -0.4219 -0.3810 
-0.1813  0.0081  0.0436  0.1839  0.0340 
 0.0694 -0.6453  0.6950 -0.4118 -0.3659 
-0.5429  0.5358 -0.3128  0.2365 -0.0264 
 0.2185 -0.5518  1.1195 -0.9462  0.2637 
-0.6654 -0.8407  0.0624  0.6495 -0.4633 
 0.2322 -0.7064  0.8557 -0.2769  0.3925 
 0.2151  0.6277 -0.6924 -0.1843 -0.2432 
-0.3883 -0.8204  0.3697  0.8277  0.3748 
-0.0382 -0.5557 -0.1287  0.2284  0.2205 
-0.7007  0.5606 -0.9096  0.8911 -0.0915 
-0.1044 -0.0583  0.6053 -0.7155  0.0549 
-0.2142 -0.2533  0.2534 -0.2732 -0.1853 
 0.2062 -0.4372  0.6111 -0.3360 -0.5093 
 0.7365  1.0344 -0.7861 -1.0575 -0.6942 
 0.2200 -0.2899  0.0583  0.5793  0.0009 
-0.3348  0.3136 -0.1197 -0.2356  0.0958 
 0.4839 -0.0660  0.1755 -0.2061  0.2882 
-0.1616 -0.2109  0.1119 -0.0738 -0.2246 
-0.0793 -0.1860 -0.0244  0.1684 -0.0608 
 0.2861  0.4519 -0.2771  0.0439 -0.1504 
 0.3299 -0.5648  0.6459 -0.2359 -0.1480 
 0.3544  0.4723 -0.6789  0.0504 -0.2654 
 0.8621 -1.3402  0.2675  0.8421  0.4373 
 0.1032  0.1949 -0.4347  0.3025 -0.1095 
-0.0146  0.5578 -0.5810 -0.0172 -0.0066 
-0.3486 -0.9713  0.1256  0.8071 -0.6104 
 0.0540 -0.3028 -0.8813  0.9053  0.5323 
-0.2649  0.3509 -0.5082  0.1075  0.1260 
-0.1416 -0.6098  0.4777  0.1005  0.1578 
-0.0048  0.6918 -0.8067 -0.1526  0.1458 
 0.2516  0.8481 -0.7819 -0.4423 -0.0204 
 0.3356 -0.6677 -0.5765  0.7759 -0.0506 
 0.1280  0.1946 -0.7604  0.6873 -0.0989 
-0.1850  0.5076  0.4319 -0.6826  0.3933 
 0.0574 -0.2020  0.7409 -0.5866 -0.5303 
 0.0334 -0.0024  0.2425 -0.2286 -0.0793 
-0.4059  0.0332  0.2414 -0.5067  0.2079 
-0.4531  1.0476 -0.9100 -0.1169 -0.5761 
 0.0310 -0.3386  0.4609 -0.3617 -0.0800 
 0.3819  0.1600 -0.6484  0.5552 -0.2331 
 0.2610 -0.3481  0.3579 -0.4193 -0.2380 
 0.0061 -0.2956  0.2929 -0.3777  0.0900 
 0.1461 -0.9053  0.4828  0.7417  0.0570 
